-0.067517
0.059253
0.013183
0.066762
0.117851
0.040686
0.028128
0.029265
0.014115
0.015354
0.106809
0.091575
0.083696
-0.019683
-0.006567
-0.074180
-0.024114
-0.032473
-0.013995
-0.003918
-0.029874
0.072962
0.033276
0.091200
-0.035587
0.047549
0.016126
-0.098636
-0.014729
-0.037976
-0.016877
-0.051706
0.018589
0.060815
-0.038469
0.007302
0.029738
0.025586
-0.086815
0.031656
-0.032807
-0.027505
0.006536
0.001277
-0.082040
-0.026367
-0.029240
0.030039
0.081435
-0.041619
0.052535
-0.016537
0.025514
-0.089804
0.044537
-0.018378
0.089020
-0.025333
-0.051051
-0.008185
-0.088569
-0.039204
-0.015428
0.063345
0.020817
-0.057351
0.036579
-0.006188
-0.007735
-0.029390
-0.016932
0.001011
0.016946
0.020585
0.033418
-0.018562
0.029769
-0.040287
0.021255
-0.029148
-0.109868
-0.061822
0.018171
0.053124
-0.068156
0.018083
0.036879
-0.033202
0.019091
0.087487
-0.053159
0.028228
0.057776
0.003792
-0.061581
0.008940
-0.022543
-0.000228
0.615103
0.023824
0.072759
0.002909
0.044386
0.065120
0.046025
-0.109201
0.002565
0.084544
-0.015466
-0.093172
-0.054229
0.030101
0.024899
-0.042639
0.013642
0.004196
0.047521
-0.021498
-0.034256
-0.020287
0.136917
0.088828
-0.050305
-0.104265
-0.067287
0.009514
-0.077337
0.115419
-0.050045
0.071687
-0.055502
0.010529
-0.023845
0.076567
-0.105946
0.009635
-0.017129
0.043472
-0.022502
-0.080714
-0.011853
-0.047747
0.073713
0.111038
0.036625
-0.024853
0.001069
0.055449
-0.050714
0.021835
0.031522
0.069579
0.008413
-0.055479
-0.008467
-0.118073
0.039887
0.078988
-0.115287
0.050784
-0.012260
-0.030179
-0.047912
-0.019367
-0.119238
0.004412
-0.021529
0.008764
0.041152
0.080458
0.020092
-0.068361
0.191188
0.074786
0.007329
-0.004559
0.016961
-0.014817
-0.027070
0.022539
0.043183
-0.022757
0.030337
-0.026271
0.009543
-0.061699
0.075596
0.063551
0.025149
0.047384
0.098565
0.067477
